booster[0]:
0:[f87<0.00254154997] yes=1,no=2,missing=2
	1:[f75<0.944010079] yes=3,no=4,missing=4
		3:[f60<5.05201197] yes=7,no=8,missing=8
			7:leaf=-0.175718844
			8:leaf=1.72839499
		4:[f167<0.0698904023] yes=9,no=10,missing=10
			9:leaf=2.02702689
			10:leaf=0.0877192989
	2:[f76<10.0500002] yes=5,no=6,missing=6
		5:[f79<7.85804462] yes=11,no=12,missing=12
			11:leaf=-0.597920239
			12:leaf=0.0877192989
		6:leaf=0.526315749
booster[1]:
0:[f185<0.00162497326] yes=1,no=2,missing=2
	1:[f703<0.0268955752] yes=3,no=4,missing=4
		3:[f65<0.0027700041] yes=7,no=8,missing=8
			7:leaf=0.112359546
			8:leaf=-0.575079858
		4:leaf=1.41975307
	2:[f443<0.489249408] yes=5,no=6,missing=6
		5:[f297<0.246753246] yes=9,no=10,missing=10
			9:leaf=1.78646922
			10:leaf=0.172413781
		6:[f70<0.115673803] yes=11,no=12,missing=12
			11:leaf=0.526315749
			12:leaf=-0.532544374
booster[2]:
0:[f445<0.543396235] yes=1,no=2,missing=2
	1:leaf=-0.609756052
	2:[f60<0.00182459841] yes=3,no=4,missing=4
		3:leaf=-0.384615362
		4:leaf=1.86131382
booster[3]:
0:[f438<0.137525409] yes=1,no=2,missing=2
	1:[f81<6.99873781] yes=3,no=4,missing=4
		3:leaf=-0.605875134
		4:leaf=0.0877192989
	2:[f73<1.09797299] yes=5,no=6,missing=6
		5:[f91<0.212570623] yes=7,no=8,missing=8
			7:leaf=1.43790841
			8:leaf=-0.384615362
		6:[f57<0.491558105] yes=9,no=10,missing=10
			9:leaf=-0.522875786
			10:leaf=0.0877192989
booster[4]:
0:[f94<0.0323196128] yes=1,no=2,missing=2
	1:[f289<0.254577011] yes=3,no=4,missing=4
		3:[f569<3.75950408] yes=7,no=8,missing=8
			7:leaf=-0.529100478
			8:leaf=0.526315749
		4:[f57<0.746287286] yes=9,no=10,missing=10
			9:leaf=-0.350877196
			10:leaf=1.40350878
	2:[f59<0.107758619] yes=5,no=6,missing=6
		5:leaf=0.0877192989
		6:leaf=2.01550388
booster[5]:
0:[f87<0.00254154997] yes=1,no=2,missing=2
	1:[f328<0.00590079278] yes=3,no=4,missing=4
		3:[f588<0.0208916739] yes=7,no=8,missing=8
			7:leaf=0.663875401
			8:leaf=-0.326518506
		4:[f312<1.15380073] yes=9,no=10,missing=10
			9:leaf=-0.432485551
			10:leaf=-0.0363297164
	2:[f201<2.24534035] yes=5,no=6,missing=6
		5:[f83<4.16011667] yes=11,no=12,missing=12
			11:leaf=-0.50160259
			12:leaf=0.126775458
		6:leaf=0.45542115
booster[6]:
0:[f193<0.00294380006] yes=1,no=2,missing=2
	1:[f64<4.15852976] yes=3,no=4,missing=4
		3:[f428<0.0186915882] yes=7,no=8,missing=8
			7:leaf=-0.621671736
			8:leaf=0.282755256
		4:leaf=0.325133085
	2:[f72<1.46342051] yes=5,no=6,missing=6
		5:[f173<0.349695027] yes=9,no=10,missing=10
			9:leaf=0.767218888
			10:leaf=-0.414930969
		6:[f187<1.60060978] yes=11,no=12,missing=12
			11:leaf=-0.376081884
			12:leaf=0.579494476
booster[7]:
0:[f455<0.146782488] yes=1,no=2,missing=2
	1:[f423<1.42857146] yes=3,no=4,missing=4
		3:leaf=-0.550613344
		4:leaf=-0.00177071837
	2:[f69<0.160256416] yes=5,no=6,missing=6
		5:leaf=-0.064219445
		6:leaf=0.576930344
booster[8]:
0:[f446<0.0821859464] yes=1,no=2,missing=2
	1:[f325<0.791208804] yes=3,no=4,missing=4
		3:leaf=-0.553426743
		4:leaf=0.165459722
	2:[f75<1.47030771] yes=5,no=6,missing=6
		5:[f211<0.0268793423] yes=7,no=8,missing=8
			7:leaf=0.660314083
			8:leaf=-0.27326411
		6:leaf=-0.393650621
booster[9]:
0:[f91<0.00899621192] yes=1,no=2,missing=2
	1:[f574<1.54189491] yes=3,no=4,missing=4
		3:[f66<6.14457083] yes=7,no=8,missing=8
			7:leaf=-0.514576375
			8:leaf=0.0317992792
		4:leaf=0.664710224
	2:[f199<0.709219873] yes=5,no=6,missing=6
		5:[f72<5.04865265] yes=9,no=10,missing=10
			9:leaf=0.884503901
			10:leaf=0.061729975
		6:[f188<3.79882383] yes=11,no=12,missing=12
			11:leaf=-0.43122673
			12:leaf=-0.0310954824
booster[10]:
0:[f73<4.3460207] yes=1,no=2,missing=2
	1:[f324<0.00976640545] yes=3,no=4,missing=4
		3:[f73<1.45155513] yes=7,no=8,missing=8
			7:leaf=0.232409865
			8:leaf=-0.472100168
		4:leaf=-0.457112402
	2:[f183<0.571247041] yes=5,no=6,missing=6
		5:leaf=0.563556969
		6:leaf=0.0376733504
booster[11]:
0:[f212<0.0654808432] yes=1,no=2,missing=2
	1:[f183<5.19623041] yes=3,no=4,missing=4
		3:[f422<0.548450589] yes=7,no=8,missing=8
			7:leaf=-0.232411027
			8:leaf=0.35087949
		4:leaf=0.56779182
	2:[f437<0.980098963] yes=5,no=6,missing=6
		5:leaf=0.592321455
		6:leaf=-0.146391183
booster[12]:
0:[f455<0.146782488] yes=1,no=2,missing=2
	1:[f58<2.60423064] yes=3,no=4,missing=4
		3:leaf=-0.508303046
		4:leaf=-0.063859202
	2:[f57<0.0226346217] yes=5,no=6,missing=6
		5:leaf=0.0336143672
		6:leaf=0.44030109
booster[13]:
0:[f328<0.152615771] yes=1,no=2,missing=2
	1:[f453<2.72904444] yes=3,no=4,missing=4
		3:leaf=-0.512104332
		4:leaf=0.382151335
	2:[f320<2.19173932] yes=5,no=6,missing=6
		5:[f164<0.446741015] yes=7,no=8,missing=8
			7:leaf=-0.399359494
			8:leaf=0.359576225
		6:[f211<0.0070309611] yes=9,no=10,missing=10
			9:leaf=0.703581929
			10:leaf=0.116129138
booster[14]:
0:[f202<0.328565896] yes=1,no=2,missing=2
	1:[f85<0.203416556] yes=3,no=4,missing=4
		3:[f422<0.0573710427] yes=7,no=8,missing=8
			7:leaf=-0.372644097
			8:leaf=0.138698533
		4:[f72<5.04865265] yes=9,no=10,missing=10
			9:leaf=0.639881134
			10:leaf=-0.030372601
	2:[f93<0.456261516] yes=5,no=6,missing=6
		5:leaf=-0.451451212
		6:leaf=0.0924881548
booster[15]:
0:[f197<1.47799802] yes=1,no=2,missing=2
	1:[f197<0.00316442153] yes=3,no=4,missing=4
		3:[f436<0.00181481615] yes=7,no=8,missing=8
			7:leaf=0.256487668
			8:leaf=-0.382459372
		4:[f192<0.12212304] yes=9,no=10,missing=10
			9:leaf=-0.0104340464
			10:leaf=-0.435325056
	2:[f86<0.230991736] yes=5,no=6,missing=6
		5:[f321<0.00474229362] yes=11,no=12,missing=12
			11:leaf=0.631554246
			12:leaf=0.14194043
		6:[f74<3.25640583] yes=13,no=14,missing=14
			13:leaf=-0.297789067
			14:leaf=0.00607704651
booster[16]:
0:[f313<1.21230185] yes=1,no=2,missing=2
	1:[f573<0.25] yes=3,no=4,missing=4
		3:[f82<0.100772589] yes=7,no=8,missing=8
			7:leaf=0.492248833
			8:leaf=0.050601773
		4:leaf=-0.354725808
	2:[f214<0.169751868] yes=5,no=6,missing=6
		5:[f423<0.0929095373] yes=9,no=10,missing=10
			9:leaf=-0.511735082
			10:leaf=0.0315202475
		6:leaf=0.311563313
booster[17]:
0:[f445<0.543396235] yes=1,no=2,missing=2
	1:leaf=-0.424833
	2:[f91<0.0246083625] yes=3,no=4,missing=4
		3:leaf=-0.106609948
		4:leaf=0.375838935
booster[18]:
0:[f448<0.072580643] yes=1,no=2,missing=2
	1:[f320<2.11398315] yes=3,no=4,missing=4
		3:leaf=-0.434023142
		4:leaf=0.04388294
	2:[f305<0.00299071311] yes=5,no=6,missing=6
		5:[f186<0.00283330702] yes=7,no=8,missing=8
			7:leaf=0.121790521
			8:leaf=0.463174105
		6:leaf=-0.229198262
booster[19]:
0:[f305<0.632365823] yes=1,no=2,missing=2
	1:[f596<0.282752126] yes=3,no=4,missing=4
		3:[f42<0.0295734536] yes=7,no=8,missing=8
			7:leaf=-0.384347051
			8:leaf=0.141131997
		4:leaf=0.383073688
	2:[f203<0.071676299] yes=5,no=6,missing=6
		5:leaf=0.485984713
		6:leaf=-0.0532288775
booster[20]:
0:[f85<0.000542578113] yes=1,no=2,missing=2
	1:[f78<0.0318066962] yes=3,no=4,missing=4
		3:[f60<4.13189507] yes=7,no=8,missing=8
			7:leaf=-0.276262879
			8:leaf=0.285161316
		4:[f82<0.057781104] yes=9,no=10,missing=10
			9:leaf=0.0557740256
			10:leaf=0.396938324
	2:[f81<5.1960516] yes=5,no=6,missing=6
		5:leaf=-0.345226794
		6:leaf=0.223902807
booster[21]:
0:[f187<1.27792811] yes=1,no=2,missing=2
	1:[f62<0.219178081] yes=3,no=4,missing=4
		3:[f196<1.5606786] yes=7,no=8,missing=8
			7:leaf=0.296430796
			8:leaf=-0.286030948
		4:[f212<0.300674617] yes=9,no=10,missing=10
			9:leaf=-0.347832948
			10:leaf=0.199596107
	2:[f436<0.245750293] yes=5,no=6,missing=6
		5:leaf=0.367717385
		6:leaf=-0.0417781174
booster[22]:
0:[f445<0.543396235] yes=1,no=2,missing=2
	1:leaf=-0.366818398
	2:[f195<1.82498491] yes=3,no=4,missing=4
		3:leaf=-0.0743194595
		4:leaf=0.324283719
booster[23]:
0:[f433<0.135974303] yes=1,no=2,missing=2
	1:[f173<0.231295526] yes=3,no=4,missing=4
		3:leaf=-0.390636533
		4:leaf=0.127287298
	2:[f317<0.891269624] yes=5,no=6,missing=6
		5:leaf=0.328657329
		6:leaf=-0.117119104
booster[24]:
0:[f91<0.00899621192] yes=1,no=2,missing=2
	1:[f586<2.59809113] yes=3,no=4,missing=4
		3:leaf=-0.349017948
		4:leaf=0.193898857
	2:[f57<0.198313609] yes=5,no=6,missing=6
		5:leaf=-0.104912318
		6:[f91<0.170440629] yes=7,no=8,missing=8
			7:leaf=0.40668267
			8:leaf=0.107181005
booster[25]:
0:[f73<4.3460207] yes=1,no=2,missing=2
	1:[f72<3.67264318] yes=3,no=4,missing=4
		3:[f299<0.769990146] yes=5,no=6,missing=6
			5:leaf=-0.304331928
			6:leaf=0.129486054
		4:[f60<0.314127684] yes=7,no=8,missing=8
			7:leaf=0.272618562
			8:leaf=-0.0508474633
	2:leaf=0.238640293
booster[26]:
0:[f186<1.78944111] yes=1,no=2,missing=2
	1:[f60<0.00182459841] yes=3,no=4,missing=4
		3:[f325<0.173522875] yes=7,no=8,missing=8
			7:leaf=-0.30531171
			8:leaf=-0.00682514347
		4:[f326<0.326487631] yes=9,no=10,missing=10
			9:leaf=0.189298183
			10:leaf=-0.274427563
	2:[f195<0.779556096] yes=5,no=6,missing=6
		5:leaf=0.0102596488
		6:leaf=0.301863611
booster[27]:
0:[f455<0.146782488] yes=1,no=2,missing=2
	1:leaf=-0.273433208
	2:leaf=0.209762409
booster[28]:
0:[f436<0.0163068101] yes=1,no=2,missing=2
	1:leaf=-0.297996283
	2:[f194<0.417046517] yes=3,no=4,missing=4
		3:leaf=0.245405763
		4:leaf=-0.107895374
booster[29]:
0:[f196<0.370752245] yes=1,no=2,missing=2
	1:[f315<0.00110828911] yes=3,no=4,missing=4
		3:leaf=-0.151524931
		4:leaf=0.320254683
	2:leaf=-0.24900423
booster[30]:
0:[f87<0.00254154997] yes=1,no=2,missing=2
	1:[f309<0.773809552] yes=3,no=4,missing=4
		3:[f65<0.0027700041] yes=5,no=6,missing=6
			5:leaf=0.0143320039
			6:leaf=0.2649391
		4:leaf=-0.0937432349
	2:leaf=-0.164835647
booster[31]:
0:[f193<0.00294380006] yes=1,no=2,missing=2
	1:[f60<0.00182459841] yes=3,no=4,missing=4
		3:leaf=-0.232425064
		4:leaf=-0.055137869
	2:[f72<1.9127804] yes=5,no=6,missing=6
		5:[f317<0.270247936] yes=7,no=8,missing=8
			7:leaf=0.347235203
			8:leaf=0.00531240739
		6:[f171<0.00868621096] yes=9,no=10,missing=10
			9:leaf=-0.218183398
			10:leaf=0.122564167
booster[32]:
0:[f445<0.543396235] yes=1,no=2,missing=2
	1:leaf=-0.264462113
	2:leaf=0.166693076
booster[33]:
0:[f320<2.19173932] yes=1,no=2,missing=2
	1:[f450<0.0421259254] yes=3,no=4,missing=4
		3:leaf=-0.301022321
		4:leaf=0.0576705411
	2:leaf=0.160322711
booster[34]:
0:[f92<0.0224381629] yes=1,no=2,missing=2
	1:[f317<0.000554144557] yes=3,no=4,missing=4
		3:leaf=-0.269063264
		4:leaf=0.0355622731
	2:leaf=0.184870735
booster[35]:
0:[f188<0.00299071311] yes=1,no=2,missing=2
	1:[f81<1.50085533] yes=3,no=4,missing=4
		3:leaf=-0.0687485114
		4:leaf=0.284221798
	2:[f86<0.00592786726] yes=5,no=6,missing=6
		5:[f182<0.0789473653] yes=7,no=8,missing=8
			7:leaf=-0.0496564284
			8:leaf=0.160247326
		6:leaf=-0.278983802
booster[36]:
0:[f212<0.0654808432] yes=1,no=2,missing=2
	1:[f174<0.210972592] yes=3,no=4,missing=4
		3:[f423<0.0123041812] yes=5,no=6,missing=6
			5:leaf=-0.259819537
			6:leaf=0.0930926427
		4:[f58<0.398453683] yes=7,no=8,missing=8
			7:leaf=0.269197673
			8:leaf=-0.056416072
	2:leaf=0.221564591
booster[37]:
0:[f73<1.40631914] yes=1,no=2,missing=2
	1:leaf=-0.157754987
	2:leaf=0.121088035
booster[38]:
0:[f328<0.152615771] yes=1,no=2,missing=2
	1:leaf=-0.169083342
	2:leaf=0.108819708
booster[39]:
0:[f199<0.709219873] yes=1,no=2,missing=2
	1:[f317<0.000554144557] yes=3,no=4,missing=4
		3:leaf=-0.0986715108
		4:leaf=0.234420851
	2:leaf=-0.213346735
booster[40]:
0:[f197<1.47799802] yes=1,no=2,missing=2
	1:[f58<1.10991788] yes=3,no=4,missing=4
		3:leaf=-0.206050158
		4:leaf=0.112298831
	2:leaf=0.135670498
booster[41]:
0:[f62<1.00321639] yes=1,no=2,missing=2
	1:[f76<1.81992447] yes=3,no=4,missing=4
		3:[f437<0.0203389823] yes=7,no=8,missing=8
			7:leaf=0.0312347859
			8:leaf=0.273703307
		4:leaf=-0.0847936422
	2:[f71<0.977812767] yes=5,no=6,missing=6
		5:leaf=-0.229477286
		6:leaf=0.0391496904
booster[42]:
0:leaf=-0.0133904722
booster[43]:
0:[f433<0.135974303] yes=1,no=2,missing=2
	1:leaf=-0.148565814
	2:leaf=0.0961077958
booster[44]:
0:[f92<0.0224381629] yes=1,no=2,missing=2
	1:leaf=-0.127172247
	2:leaf=0.136539012
booster[45]:
0:[f85<0.000542578113] yes=1,no=2,missing=2
	1:[f78<0.0318066962] yes=3,no=4,missing=4
		3:leaf=-0.0495181493
		4:leaf=0.187555581
	2:leaf=-0.132087171
booster[46]:
0:[f187<1.27792811] yes=1,no=2,missing=2
	1:[f59<0.0257823896] yes=3,no=4,missing=4
		3:[f186<0.00283330702] yes=5,no=6,missing=6
			5:leaf=-0.135928482
			6:leaf=0.189854056
		4:leaf=-0.194462657
	2:leaf=0.164950982
booster[47]:
0:leaf=0.00713210041
booster[48]:
0:[f318<1.04129589] yes=1,no=2,missing=2
	1:leaf=0.0943119749
	2:leaf=-0.135280624
booster[49]:
0:[f191<0.119760476] yes=1,no=2,missing=2
	1:leaf=0.113984205
	2:leaf=-0.1410999
booster[50]:
0:[f186<0.00283330702] yes=1,no=2,missing=2
	1:leaf=0.109875768
	2:[f181<0.287803948] yes=3,no=4,missing=4
		3:leaf=-0.145542577
		4:leaf=0.020898385
booster[51]:
0:[f82<0.0843750015] yes=1,no=2,missing=2
	1:[f68<0.00254074251] yes=3,no=4,missing=4
		3:leaf=-0.0356240347
		4:leaf=0.225002453
	2:[f189<0.459874541] yes=5,no=6,missing=6
		5:leaf=-0.199208379
		6:leaf=0.0423403606
booster[52]:
0:leaf=0.000538185181
booster[53]:
0:[f60<0.0341453478] yes=1,no=2,missing=2
	1:leaf=0.0992323831
	2:leaf=-0.116487078
booster[54]:
0:[f91<0.00899621192] yes=1,no=2,missing=2
	1:leaf=-0.117201962
	2:leaf=0.0840489417
booster[55]:
0:[f85<0.000542578113] yes=1,no=2,missing=2
	1:[f78<0.0318066962] yes=3,no=4,missing=4
		3:leaf=-0.0343049392
		4:leaf=0.163552389
	2:leaf=-0.113592722
booster[56]:
0:[f443<0.0974542573] yes=1,no=2,missing=2
	1:[f186<0.00283330702] yes=3,no=4,missing=4
		3:leaf=-0.0673530996
		4:[f182<0.0780843347] yes=5,no=6,missing=6
			5:leaf=0.197955459
			6:leaf=0.0340558849
	2:leaf=-0.131139934
booster[57]:
0:leaf=0.00858247653
booster[58]:
0:[f60<0.0341453478] yes=1,no=2,missing=2
	1:leaf=0.0697831661
	2:leaf=-0.0930704698
booster[59]:
0:[f191<0.119760476] yes=1,no=2,missing=2
	1:leaf=0.0769971833
	2:leaf=-0.105873823
booster[60]:
0:[f188<0.00299071311] yes=1,no=2,missing=2
	1:leaf=0.100825779
	2:leaf=-0.0659725666
booster[61]:
0:[f82<0.156536818] yes=1,no=2,missing=2
	1:[f68<0.00254074251] yes=3,no=4,missing=4
		3:leaf=-0.0103040524
		4:leaf=0.163746133
	2:[f82<1.22081995] yes=5,no=6,missing=6
		5:leaf=-0.174394935
		6:leaf=0.0320722349
booster[62]:
0:leaf=-0.00528587122
booster[63]:
0:leaf=-0.0202977192
booster[64]:
0:[f321<0.233766228] yes=1,no=2,missing=2
	1:leaf=-0.0945843905
	2:leaf=0.073758021
