booster[0]:
0:[f87<0.00254154997] yes=1,no=2,missing=2
	1:[f75<0.944010079] yes=3,no=4,missing=4
		3:[f60<5.05201197] yes=7,no=8,missing=8
			7:[f81<0.56089741] yes=13,no=14,missing=14
				13:leaf=-0.555555522
				14:[f86<0.0673639402] yes=15,no=16,missing=16
					15:leaf=1.40350878
					16:leaf=-0.123456784
			8:leaf=1.72839499
		4:[f167<0.0698904023] yes=9,no=10,missing=10
			9:leaf=2.02702689
			10:leaf=0.0877192989
	2:[f76<10.0500002] yes=5,no=6,missing=6
		5:[f79<7.85804462] yes=11,no=12,missing=12
			11:leaf=-0.597920239
			12:leaf=0.0877192989
		6:leaf=0.526315749
booster[1]:
0:[f185<0.00162497326] yes=1,no=2,missing=2
	1:[f703<0.0268955752] yes=3,no=4,missing=4
		3:[f65<0.0027700041] yes=7,no=8,missing=8
			7:[f72<0.00392506691] yes=13,no=14,missing=14
				13:leaf=-0.350877196
				14:leaf=0.526315749
			8:leaf=-0.575079858
		4:leaf=1.41975307
	2:[f443<0.489249408] yes=5,no=6,missing=6
		5:[f297<0.246753246] yes=9,no=10,missing=10
			9:[f73<4.94318962] yes=15,no=16,missing=16
				15:[f326<0.209330752] yes=19,no=20,missing=20
					19:[f36<0.0918976888] yes=21,no=22,missing=22
						21:leaf=2.22741413
						22:[f31<0.0996226445] yes=23,no=24,missing=24
							23:leaf=0.0877192989
							24:leaf=1.40350878
					20:leaf=0.493827134
				16:leaf=0.0877192989
			10:[f190<3.92244625] yes=17,no=18,missing=18
				17:leaf=-0.476190448
				18:leaf=1.15384614
		6:[f70<0.115673803] yes=11,no=12,missing=12
			11:leaf=0.526315749
			12:leaf=-0.532544374
booster[2]:
0:[f445<0.543396235] yes=1,no=2,missing=2
	1:leaf=-0.609756052
	2:[f60<0.00182459841] yes=3,no=4,missing=4
		3:leaf=-0.384615362
		4:leaf=1.86131382
booster[3]:
0:[f438<0.137525409] yes=1,no=2,missing=2
	1:[f81<6.99873781] yes=3,no=4,missing=4
		3:leaf=-0.605875134
		4:leaf=0.0877192989
	2:[f73<1.09797299] yes=5,no=6,missing=6
		5:[f91<0.212570623] yes=7,no=8,missing=8
			7:[f446<0.0821859464] yes=11,no=12,missing=12
				11:leaf=0.0877192989
				12:leaf=1.7768594
			8:leaf=-0.384615362
		6:[f57<0.491558105] yes=9,no=10,missing=10
			9:leaf=-0.522875786
			10:leaf=0.0877192989
booster[4]:
0:[f94<0.0323196128] yes=1,no=2,missing=2
	1:[f289<0.254577011] yes=3,no=4,missing=4
		3:[f569<3.75950408] yes=7,no=8,missing=8
			7:[f91<0.00899621192] yes=11,no=12,missing=12
				11:leaf=-0.605095506
				12:[f91<0.0598205365] yes=13,no=14,missing=14
					13:leaf=0.616438329
					14:leaf=-0.510948896
			8:leaf=0.526315749
		4:[f57<0.746287286] yes=9,no=10,missing=10
			9:leaf=-0.350877196
			10:leaf=1.40350878
	2:[f59<0.107758619] yes=5,no=6,missing=6
		5:leaf=0.0877192989
		6:leaf=2.01550388
booster[5]:
0:[f328<0.00590079278] yes=1,no=2,missing=2
	1:[f87<0.00254154997] yes=3,no=4,missing=4
		3:[f170<0.0103011364] yes=7,no=8,missing=8
			7:[f573<0.0584966876] yes=11,no=12,missing=12
				11:[f206<0.137193114] yes=13,no=14,missing=14
					13:leaf=0.63853091
					14:[f199<4.09077978] yes=15,no=16,missing=16
						15:leaf=-0.0733573064
						16:leaf=0.327722639
				12:leaf=-0.0745102763
			8:leaf=-0.137625322
		4:[f76<10.3999996] yes=9,no=10,missing=10
			9:leaf=-0.448170632
			10:leaf=0.452322841
	2:[f77<4.66298485] yes=5,no=6,missing=6
		5:leaf=-0.503306508
		6:leaf=0.217522204
booster[6]:
0:[f193<0.00294380006] yes=1,no=2,missing=2
	1:[f64<4.15852976] yes=3,no=4,missing=4
		3:[f428<0.0186915882] yes=7,no=8,missing=8
			7:leaf=-0.569710255
			8:leaf=0.188459158
		4:leaf=0.247791886
	2:[f316<1.18939793] yes=5,no=6,missing=6
		5:[f334<0.191051394] yes=9,no=10,missing=10
			9:[f301<0.754310369] yes=13,no=14,missing=14
				13:[f72<2.17693806] yes=17,no=18,missing=18
					17:leaf=0.828579664
					18:[f59<0.0844594613] yes=19,no=20,missing=20
						19:leaf=-0.0789803043
						20:leaf=0.573436379
				14:leaf=-0.0437356494
			10:leaf=-0.368394852
		6:[f178<0.0179604869] yes=11,no=12,missing=12
			11:leaf=-0.480953008
			12:[f60<0.356652081] yes=15,no=16,missing=16
				15:leaf=0.722826064
				16:leaf=-0.000471257954
booster[7]:
0:[f455<0.146782488] yes=1,no=2,missing=2
	1:[f198<4.44914961] yes=3,no=4,missing=4
		3:leaf=-0.539587557
		4:leaf=-0.0123828845
	2:[f69<0.160256416] yes=5,no=6,missing=6
		5:leaf=-0.0555716194
		6:leaf=0.577137589
booster[8]:
0:[f320<2.49927735] yes=1,no=2,missing=2
	1:[f453<0.0842667893] yes=3,no=4,missing=4
		3:[f429<1.20772767] yes=7,no=8,missing=8
			7:leaf=-0.539579451
			8:leaf=-0.0335036591
		4:[f68<0.624688804] yes=9,no=10,missing=10
			9:[f434<0.52724123] yes=13,no=14,missing=14
				13:leaf=0.159604147
				14:leaf=0.534121573
			10:leaf=-0.345849782
	2:[f305<0.304878056] yes=5,no=6,missing=6
		5:[f202<1.47569442] yes=11,no=12,missing=12
			11:leaf=0.921230018
			12:leaf=0.200884685
		6:leaf=-0.306548476
booster[9]:
0:[f305<0.632365823] yes=1,no=2,missing=2
	1:[f187<0.00168911414] yes=3,no=4,missing=4
		3:[f315<0.00110828911] yes=7,no=8,missing=8
			7:[f42<0.0295734536] yes=9,no=10,missing=10
				9:leaf=-0.448446214
				10:[f29<0.0207439195] yes=11,no=12,missing=12
					11:leaf=0.12402188
					12:leaf=0.480109423
			8:leaf=0.716574371
		4:leaf=-0.513679802
	2:[f207<0.479931533] yes=5,no=6,missing=6
		5:leaf=0.733494401
		6:leaf=-0.3306894
booster[10]:
0:[f73<4.5653224] yes=1,no=2,missing=2
	1:[f74<5.61604309] yes=3,no=4,missing=4
		3:[f50<3.44616318] yes=7,no=8,missing=8
			7:[f300<1.46181691] yes=11,no=12,missing=12
				11:[f185<2.49869871] yes=13,no=14,missing=14
					13:leaf=-0.462969601
					14:leaf=-0.0587470755
				12:leaf=0.142273799
			8:leaf=0.280907631
		4:[f81<5.1960516] yes=9,no=10,missing=10
			9:leaf=0.0724019781
			10:leaf=0.533370256
	2:[f74<2.80412626] yes=5,no=6,missing=6
		5:leaf=0.507661581
		6:leaf=0.0563482605
booster[11]:
0:[f188<0.286607713] yes=1,no=2,missing=2
	1:[f74<0.0460966527] yes=3,no=4,missing=4
		3:[f316<0.0152925532] yes=7,no=8,missing=8
			7:leaf=-0.157908648
			8:leaf=0.415755779
		4:[f54<0.622467756] yes=9,no=10,missing=10
			9:leaf=-0.482565016
			10:leaf=0.0290787034
	2:[f453<0.114195086] yes=5,no=6,missing=6
		5:[f187<0.180895746] yes=11,no=12,missing=12
			11:[f191<0.948350012] yes=13,no=14,missing=14
				13:leaf=0.150189415
				14:leaf=-0.176252097
			12:[f441<0.990773618] yes=15,no=16,missing=16
				15:leaf=0.543559372
				16:leaf=0.0263857581
		6:leaf=-0.181281447
booster[12]:
0:[f455<0.146782488] yes=1,no=2,missing=2
	1:[f58<2.60423064] yes=3,no=4,missing=4
		3:leaf=-0.48306492
		4:leaf=-0.0705514997
	2:[f442<0.448301882] yes=5,no=6,missing=6
		5:leaf=0.0306701753
		6:leaf=0.423229992
booster[13]:
0:[f441<0.023398757] yes=1,no=2,missing=2
	1:leaf=-0.443216741
	2:[f318<1.04129589] yes=3,no=4,missing=4
		3:[f329<0.00384862092] yes=5,no=6,missing=6
			5:leaf=0.0925806314
			6:leaf=0.529156685
		4:[f436<1.3579427] yes=7,no=8,missing=8
			7:leaf=-0.425962269
			8:leaf=0.135296911
booster[14]:
0:[f202<0.328565896] yes=1,no=2,missing=2
	1:[f85<0.203416556] yes=3,no=4,missing=4
		3:[f422<0.0918013006] yes=7,no=8,missing=8
			7:leaf=-0.32913363
			8:leaf=0.170573026
		4:[f321<0.00474229362] yes=9,no=10,missing=10
			9:[f32<0.0376451612] yes=11,no=12,missing=12
				11:leaf=-0.184259892
				12:leaf=0.275689721
			10:leaf=0.580167234
	2:[f54<0.0172288157] yes=5,no=6,missing=6
		5:leaf=-0.431762725
		6:leaf=-0.0976075009
booster[15]:
0:[f87<0.111063279] yes=1,no=2,missing=2
	1:[f422<0.00939098932] yes=3,no=4,missing=4
		3:[f82<0.057781104] yes=7,no=8,missing=8
			7:[f60<4.13189507] yes=9,no=10,missing=10
				9:leaf=-0.106594406
				10:leaf=0.274274886
			8:[f59<0.153559431] yes=11,no=12,missing=12
				11:leaf=0.464451432
				12:leaf=0.0500845388
		4:leaf=-0.203542337
	2:[f70<0.490702629] yes=5,no=6,missing=6
		5:leaf=0.0331808999
		6:leaf=-0.345188558
booster[16]:
0:[f193<0.158469751] yes=1,no=2,missing=2
	1:[f74<0.0360785462] yes=3,no=4,missing=4
		3:leaf=0.0541737601
		4:[f185<0.201545179] yes=7,no=8,missing=8
			7:leaf=-0.398840398
			8:leaf=-0.00539579196
	2:[f316<1.18939793] yes=5,no=6,missing=6
		5:[f195<0.300206602] yes=9,no=10,missing=10
			9:leaf=0.0356246717
			10:[f183<0.00805729628] yes=13,no=14,missing=14
				13:leaf=0.097020179
				14:leaf=0.42972222
		6:[f178<0.0179604869] yes=11,no=12,missing=12
			11:leaf=-0.345579177
			12:leaf=0.242706016
booster[17]:
0:[f445<0.543396235] yes=1,no=2,missing=2
	1:leaf=-0.415723205
	2:[f91<0.0246083625] yes=3,no=4,missing=4
		3:leaf=-0.0510867648
		4:leaf=0.359147459
booster[18]:
0:[f436<0.0163068101] yes=1,no=2,missing=2
	1:leaf=-0.382101506
	2:[f201<0.316440821] yes=3,no=4,missing=4
		3:[f67<0.0724484548] yes=5,no=6,missing=6
			5:leaf=0.380468547
			6:[f200<0.763060629] yes=9,no=10,missing=10
				9:leaf=-0.0939190462
				10:leaf=0.164686456
		4:[f186<0.209557101] yes=7,no=8,missing=8
			7:leaf=-0.322566539
			8:leaf=0.085983254
booster[19]:
0:[f191<0.119760476] yes=1,no=2,missing=2
	1:[f318<0.0565227419] yes=3,no=4,missing=4
		3:[f34<0.0306449067] yes=7,no=8,missing=8
			7:leaf=-0.300601572
			8:leaf=0.213798299
		4:leaf=0.40764147
	2:[f305<0.632365823] yes=5,no=6,missing=6
		5:leaf=-0.399417937
		6:leaf=0.107918039
booster[20]:
0:[f73<4.3460207] yes=1,no=2,missing=2
	1:[f324<0.00976640545] yes=3,no=4,missing=4
		3:[f61<0.481400996] yes=5,no=6,missing=6
			5:[f77<0.983139336] yes=7,no=8,missing=8
				7:leaf=-0.0216023326
				8:leaf=0.302540064
			6:leaf=-0.128503442
		4:leaf=-0.316646278
	2:leaf=0.298019081
booster[21]:
0:[f212<0.0654808432] yes=1,no=2,missing=2
	1:[f174<0.210972592] yes=3,no=4,missing=4
		3:[f423<0.0123041812] yes=5,no=6,missing=6
			5:[f184<0.00799418613] yes=9,no=10,missing=10
				9:leaf=-0.348618478
				10:leaf=-0.0668285862
			6:leaf=0.0794216618
		4:[f62<1.23629391] yes=7,no=8,missing=8
			7:leaf=0.277122259
			8:leaf=-0.0515062027
	2:leaf=0.316151172
booster[22]:
0:[f445<0.543396235] yes=1,no=2,missing=2
	1:leaf=-0.354568779
	2:[f66<0.674231827] yes=3,no=4,missing=4
		3:leaf=-0.0397158489
		4:leaf=0.300767034
booster[23]:
0:[f441<0.023398757] yes=1,no=2,missing=2
	1:leaf=-0.319210768
	2:[f318<1.04129589] yes=3,no=4,missing=4
		3:[f329<0.00384862092] yes=5,no=6,missing=6
			5:leaf=0.0601759814
			6:leaf=0.307427883
		4:[f429<1.06235754] yes=7,no=8,missing=8
			7:leaf=-0.234626681
			8:leaf=0.0498953089
booster[24]:
0:[f91<0.00899621192] yes=1,no=2,missing=2
	1:[f422<0.019480519] yes=3,no=4,missing=4
		3:leaf=-0.352999151
		4:leaf=0.0694402307
	2:[f200<0.425531924] yes=5,no=6,missing=6
		5:leaf=0.297364652
		6:leaf=-0.0640355125
booster[25]:
0:[f85<0.000542578113] yes=1,no=2,missing=2
	1:[f78<0.0318066962] yes=3,no=4,missing=4
		3:leaf=-0.0052300971
		4:leaf=0.264409393
	2:[f188<0.00299071311] yes=5,no=6,missing=6
		5:leaf=0.0718624145
		6:leaf=-0.291836232
booster[26]:
0:[f187<1.27792811] yes=1,no=2,missing=2
	1:[f62<0.219178081] yes=3,no=4,missing=4
		3:[f437<0.0203389823] yes=7,no=8,missing=8
			7:leaf=-0.112666205
			8:leaf=0.237868503
		4:[f61<0.945575476] yes=9,no=10,missing=10
			9:leaf=-0.269337296
			10:leaf=-0.0427133553
	2:[f71<1.67125273] yes=5,no=6,missing=6
		5:leaf=0.283946902
		6:leaf=0.0421918035
booster[27]:
0:[f445<0.543396235] yes=1,no=2,missing=2
	1:leaf=-0.294064432
	2:leaf=0.161184341
booster[28]:
0:[f438<0.137525409] yes=1,no=2,missing=2
	1:leaf=-0.240444556
	2:[f201<0.231347606] yes=3,no=4,missing=4
		3:leaf=0.272505581
		4:leaf=-0.120494768
booster[29]:
0:[f199<0.709219873] yes=1,no=2,missing=2
	1:[f317<0.000554144557] yes=3,no=4,missing=4
		3:leaf=-0.130846515
		4:leaf=0.254659146
	2:leaf=-0.259176016
booster[30]:
0:[f87<0.00254154997] yes=1,no=2,missing=2
	1:[f78<0.0828417391] yes=3,no=4,missing=4
		3:leaf=-0.00892116316
		4:leaf=0.205567822
	2:leaf=-0.177853823
booster[31]:
0:[f193<0.00294380006] yes=1,no=2,missing=2
	1:leaf=-0.141047969
	2:[f198<0.912652671] yes=3,no=4,missing=4
		3:[f55<0.115637317] yes=5,no=6,missing=6
			5:leaf=0.265727997
			6:leaf=0.0157774501
		4:leaf=-0.090505369
booster[32]:
0:[f455<0.146782488] yes=1,no=2,missing=2
	1:leaf=-0.225664005
	2:leaf=0.171631366
booster[33]:
0:[f328<0.152615771] yes=1,no=2,missing=2
	1:leaf=-0.169498935
	2:leaf=0.131284073
booster[34]:
0:[f92<0.0224381629] yes=1,no=2,missing=2
	1:[f191<0.0272222422] yes=3,no=4,missing=4
		3:leaf=0.0222416036
		4:leaf=-0.244823158
	2:leaf=0.18325913
booster[35]:
0:[f73<4.3460207] yes=1,no=2,missing=2
	1:[f72<0.00392506691] yes=3,no=4,missing=4
		3:leaf=0.068220228
		4:[f72<3.67264318] yes=5,no=6,missing=6
			5:leaf=-0.259423018
			6:leaf=0.0469991341
	2:leaf=0.164586648
booster[36]:
0:[f441<1.26229417] yes=1,no=2,missing=2
	1:[f186<0.00283330702] yes=3,no=4,missing=4
		3:leaf=-0.0669521913
		4:[f60<0.173611104] yes=5,no=6,missing=6
			5:leaf=0.231057435
			6:leaf=0.0189013928
	2:leaf=-0.163551837
booster[37]:
0:[f449<0.670665085] yes=1,no=2,missing=2
	1:leaf=-0.185885534
	2:leaf=0.134460658
booster[38]:
0:[f433<0.0710136518] yes=1,no=2,missing=2
	1:leaf=-0.176164612
	2:leaf=0.112971403
booster[39]:
0:[f91<0.00899621192] yes=1,no=2,missing=2
	1:leaf=-0.134109095
	2:leaf=0.113307737
booster[40]:
0:[f85<0.000542578113] yes=1,no=2,missing=2
	1:[f189<0.140262291] yes=3,no=4,missing=4
		3:leaf=-0.0133700939
		4:leaf=0.162733704
	2:leaf=-0.129196227
booster[41]:
0:[f187<1.27792811] yes=1,no=2,missing=2
	1:[f62<0.219178081] yes=3,no=4,missing=4
		3:leaf=0.0423437692
		4:leaf=-0.156691492
	2:leaf=0.155313432
booster[42]:
0:leaf=-0.0123629831
booster[43]:
0:[f448<0.072580643] yes=1,no=2,missing=2
	1:leaf=-0.142187953
	2:leaf=0.0916106477
booster[44]:
0:[f305<0.453503847] yes=1,no=2,missing=2
	1:leaf=-0.0920888931
	2:leaf=0.1213184
booster[45]:
0:[f203<0.323275864] yes=1,no=2,missing=2
	1:[f197<0.00316442153] yes=3,no=4,missing=4
		3:leaf=0.0330199078
		4:leaf=-0.150037602
	2:leaf=0.122096054
booster[46]:
0:[f318<0.0565227419] yes=1,no=2,missing=2
	1:leaf=0.118400492
	2:[f318<1.64498103] yes=3,no=4,missing=4
		3:leaf=-0.202902108
		4:leaf=0.0693354383
booster[47]:
0:leaf=-0.00208416278
booster[48]:
0:[f60<0.0341453478] yes=1,no=2,missing=2
	1:leaf=0.102300435
	2:leaf=-0.120203793
booster[49]:
0:[f71<0.936904609] yes=1,no=2,missing=2
	1:leaf=0.0965835303
	2:leaf=-0.129546985
booster[50]:
0:[f85<0.084014602] yes=1,no=2,missing=2
	1:[f78<0.0828417391] yes=3,no=4,missing=4
		3:leaf=-0.0145566445
		4:leaf=0.139994711
	2:leaf=-0.0967385992
booster[51]:
0:[f82<0.0843750015] yes=1,no=2,missing=2
	1:[f183<0.00805729628] yes=3,no=4,missing=4
		3:leaf=-0.0185817238
		4:leaf=0.164802074
	2:[f189<0.459874541] yes=5,no=6,missing=6
		5:leaf=-0.183792964
		6:leaf=0.0553469099
booster[52]:
0:leaf=0.00266535138
booster[53]:
0:[f194<0.417046517] yes=1,no=2,missing=2
	1:leaf=0.079358764
	2:leaf=-0.102578685
booster[54]:
0:[f199<0.000769724196] yes=1,no=2,missing=2
	1:leaf=0.0843055174
	2:leaf=-0.111047365
